1403715285.362143 -0.001634 0.021215 0.076289 
1403715285.612143 -0.001614 0.021322 0.076196 
1403715286.162143 -0.001690 0.021504 0.076166 
1403715286.362143 -0.001711 0.021460 0.076148 
1403715286.562143 -0.001860 0.021317 0.076097 
1403715286.762143 -0.001912 0.021268 0.076086 
1403715286.962143 -0.001889 0.021222 0.076112 
1403715287.162143 -0.001858 0.021289 0.076239 
1403715287.312143 -0.001950 0.021288 0.076175 
1403715287.512143 -0.001847 0.021370 0.076204 
1403715287.712143 -0.001669 0.021379 0.076256 
1403715287.912143 -0.001577 0.021491 0.076177 
1403715288.112143 -0.001571 0.021597 0.076245 
1403715288.312143 -0.001586 0.021516 0.076345 
1403715288.512143 -0.001767 0.021502 0.076361 
1403715288.712143 -0.001850 0.021382 0.076359 
1403715288.912143 -0.001795 0.021282 0.076450 
1403715289.112143 -0.001815 0.021335 0.076425 
1403715289.312143 -0.001938 0.021336 0.076379 
1403715289.512143 -0.001927 0.021326 0.076290 
1403715289.762143 -0.001968 0.021220 0.076334 
1403715289.962143 -0.002046 0.021219 0.076290 
1403715290.212143 -0.002037 0.021175 0.076319 
1403715290.462143 -0.001996 0.021176 0.076334 
1403715290.712143 -0.001934 0.021144 0.076423 
1403715290.962143 -0.002008 0.021163 0.076377 
1403715291.212143 -0.002013 0.021095 0.076351 
1403715291.462143 -0.002042 0.021169 0.076384 
1403715291.762143 -0.002117 0.021088 0.076404 
1403715292.062143 -0.002184 0.021070 0.076328 
1403715292.312143 -0.002212 0.021015 0.076398 
1403715292.562143 -0.002276 0.021071 0.076441 
1403715292.812143 -0.002317 0.021090 0.076489 
1403715293.112143 -0.002330 0.021156 0.076484 
1403715293.412143 -0.002178 0.021135 0.076574 
1403715293.712143 -0.002064 0.021202 0.076615 
1403715294.012143 -0.002154 0.021130 0.076573 
1403715294.362143 -0.002073 0.021161 0.076638 
1403715294.712143 -0.002024 0.021240 0.076700 
1403715295.062143 -0.002083 0.021196 0.076653 
1403715295.412143 -0.001984 0.021263 0.076749 
1403715295.762143 -0.001931 0.021210 0.076731 
1403715296.112143 -0.001790 0.021213 0.076716 
1403715296.462143 -0.001745 0.021173 0.076696 
1403715296.862143 -0.001725 0.021171 0.076701 
1403715297.262143 -0.001824 0.021207 0.076664 
1403715297.662143 -0.001782 0.021240 0.076658 
1403715298.062143 -0.001611 0.021058 0.076788 
1403715298.362143 -0.001462 0.021007 0.076839 
1403715298.662143 -0.001445 0.021017 0.076839 
1403715298.962143 -0.001553 0.021040 0.076721 
1403715299.312143 -0.001603 0.021027 0.076750 
1403715299.662143 -0.001666 0.021007 0.076774 
1403715299.962143 -0.001752 0.020979 0.076852 
1403715300.262143 -0.001651 0.020938 0.076859 
1403715300.562143 -0.001650 0.020968 0.076777 
