1413393224.205760 0.087062 0.843478 0.425976 
1413393224.405761 0.091631 0.750046 0.435940 
1413393224.705760 0.101402 0.586265 0.476352 
1413393224.955760 0.105661 0.694260 0.487892 
1413393225.205760 0.099610 0.655547 0.467809 
1413393225.505760 0.079707 0.312214 0.404546 
1413393225.755760 0.043858 0.208019 0.296135 
1413393226.055760 0.020529 0.267681 0.219263 
1413393226.355761 -0.015267 0.240745 0.104648 
1413393226.655761 -0.016590 0.178101 0.100933 
1413393226.955760 -0.020235 0.149699 0.086182 
1413393227.255760 -0.025393 0.172755 0.075985 
1413393227.555760 -0.029116 0.164171 0.066915 
1413393227.905761 -0.033323 0.171125 0.053980 
1413393228.255760 -0.034378 0.183506 0.048142 
1413393228.505760 -0.034219 0.190340 0.047211 
1413393228.905761 -0.033594 0.188154 0.052612 
1413393229.255760 -0.034320 0.179313 0.050914 
1413393229.605761 -0.035665 0.174479 0.047103 
1413393230.005760 -0.036256 0.168180 0.044271 
1413393230.605761 -0.025507 0.185463 0.071639 
1413393231.055760 -0.027964 0.167281 0.054839 
1413393231.405761 -0.031766 0.173386 0.050196 
1413393231.755760 -0.032310 0.177364 0.047553 
1413393232.155761 -0.032336 0.179557 0.048093 
1413393232.405761 -0.032675 0.178913 0.047445 
1413393233.005760 -0.035892 0.180101 0.039637 
1413393233.155761 -0.036666 0.179299 0.037192 
1413393233.555760 -0.038055 0.177570 0.033083 
1413393233.705760 -0.036706 0.178213 0.037310 
1413393233.855761 -0.037160 0.174177 0.035898 
1413393234.005760 -0.037282 0.172922 0.035708 
1413393234.255760 -0.037224 0.170555 0.035942 
1413393234.405761 -0.037202 0.169823 0.036295 
1413393234.505760 -0.036849 0.169570 0.037597 
1413393234.655761 -0.036338 0.168614 0.039236 
1413393234.905761 -0.037470 0.168760 0.035595 
1413393235.155761 -0.037911 0.169060 0.034057 
1413393235.505760 -0.037490 0.169751 0.035262 
1413393235.505760 -0.037072 0.173694 0.036593 
1413393235.805760 -0.036889 0.174739 0.037271 
1413393236.405761 -0.038089 0.181301 0.033752 
1413393237.205760 -0.040179 0.190211 0.028417 
1413393237.955760 -0.047820 0.208232 0.034721 
1413393238.205760 -0.048082 0.208788 0.035885 
1413393238.905761 -0.046424 0.204838 0.039291 
1413393239.055760 -0.044762 0.203778 0.042017 
1413393239.155761 -0.044260 0.203108 0.042986 
1413393239.355761 -0.044250 0.202597 0.043193 
