1413393224.205760 -0.002385 0.025024 0.082888 
1413393224.405761 -0.002387 0.024958 0.082889 
1413393224.705760 -0.002376 0.025011 0.082727 
1413393224.955760 -0.002336 0.024951 0.082723 
1413393225.205760 -0.002350 0.025028 0.082753 
1413393225.505760 -0.002222 0.025020 0.082653 
1413393225.755760 -0.002211 0.024986 0.082603 
1413393226.055760 -0.002129 0.024886 0.082594 
1413393226.355761 -0.002162 0.024955 0.082390 
1413393226.655761 -0.002249 0.024892 0.082438 
1413393226.955760 -0.002292 0.024888 0.082428 
1413393227.255760 -0.002220 0.024803 0.082389 
1413393227.555760 -0.002291 0.024880 0.082380 
1413393227.905761 -0.002250 0.024819 0.082271 
1413393228.255760 -0.002318 0.024909 0.082285 
1413393228.505760 -0.002327 0.024852 0.082236 
1413393228.905761 -0.002362 0.024883 0.082240 
1413393229.255760 -0.002283 0.024838 0.082273 
1413393229.605761 -0.002224 0.024832 0.082227 
1413393230.005760 -0.002336 0.024754 0.082173 
1413393230.605761 -0.002132 0.024582 0.082190 
1413393231.055760 -0.002019 0.024365 0.082271 
1413393231.405761 -0.002197 0.024488 0.082110 
1413393231.755760 -0.002173 0.024498 0.082141 
1413393232.155761 -0.002089 0.024582 0.082108 
1413393232.405761 -0.002013 0.024433 0.082092 
1413393233.005760 -0.002251 0.024422 0.082094 
1413393233.155761 -0.002296 0.024375 0.082098 
1413393233.555760 -0.002233 0.024158 0.082041 
1413393233.705760 -0.002204 0.024320 0.082080 
1413393233.855761 -0.002315 0.024171 0.082152 
1413393234.005760 -0.002394 0.024056 0.082184 
1413393234.255760 -0.002579 0.024017 0.082304 
1413393234.405761 -0.002671 0.024009 0.082411 
1413393234.505760 -0.002724 0.024025 0.082474 
1413393234.655761 -0.002683 0.024045 0.082552 
1413393234.905761 -0.002582 0.023902 0.082366 
1413393235.155761 -0.002562 0.023899 0.082335 
1413393235.505760 -0.002518 0.024036 0.082359 
1413393235.505760 -0.002366 0.024167 0.082389 
1413393235.805760 -0.002455 0.024214 0.082288 
1413393236.405761 -0.002441 0.024277 0.082252 
1413393237.205760 -0.002460 0.024293 0.082281 
1413393237.955760 -0.002507 0.024367 0.082239 
1413393238.205760 -0.002509 0.024388 0.082206 
1413393238.905761 -0.002554 0.024420 0.082206 
1413393239.055760 -0.002460 0.024426 0.082215 
1413393239.155761 -0.002434 0.024436 0.082210 
1413393239.355761 -0.002453 0.024445 0.082177 
